digraph Tree {
node [shape=box] ;
0 [label="X[4] <= 0.133\nentropy = 0.805\nsamples = 5197\nvalue = [3918, 1279]"] ;
1 [label="X[6] <= -1.095\nentropy = 0.224\nsamples = 3762\nvalue = [3626, 136]"] ;
0 -> 1 [labeldistance=2.5, labelangle=45, headlabel="True"] ;
2 [label="X[4] <= -0.446\nentropy = 0.895\nsamples = 138\nvalue = [43, 95]"] ;
1 -> 2 ;
3 [label="X[7] <= 0.028\nentropy = 0.535\nsamples = 41\nvalue = [36, 5]"] ;
2 -> 3 ;
4 [label="X[8] <= 3.036\nentropy = 0.179\nsamples = 37\nvalue = [36, 1]"] ;
3 -> 4 ;
5 [label="entropy = 0.0\nsamples = 36\nvalue = [36, 0]"] ;
4 -> 5 ;
6 [label="entropy = 0.0\nsamples = 1\nvalue = [0, 1]"] ;
4 -> 6 ;
7 [label="entropy = 0.0\nsamples = 4\nvalue = [0, 4]"] ;
3 -> 7 ;
8 [label="X[9] <= -0.826\nentropy = 0.374\nsamples = 97\nvalue = [7, 90]"] ;
2 -> 8 ;
9 [label="X[1] <= 1.327\nentropy = 0.918\nsamples = 9\nvalue = [6, 3]"] ;
8 -> 9 ;
10 [label="entropy = 0.0\nsamples = 6\nvalue = [6, 0]"] ;
9 -> 10 ;
11 [label="entropy = 0.0\nsamples = 3\nvalue = [0, 3]"] ;
9 -> 11 ;
12 [label="X[7] <= -0.73\nentropy = 0.09\nsamples = 88\nvalue = [1, 87]"] ;
8 -> 12 ;
13 [label="X[5] <= -1.354\nentropy = 0.811\nsamples = 4\nvalue = [1, 3]"] ;
12 -> 13 ;
14 [label="entropy = 0.0\nsamples = 1\nvalue = [1, 0]"] ;
13 -> 14 ;
15 [label="entropy = 0.0\nsamples = 3\nvalue = [0, 3]"] ;
13 -> 15 ;
16 [label="entropy = 0.0\nsamples = 84\nvalue = [0, 84]"] ;
12 -> 16 ;
17 [label="X[1] <= 0.755\nentropy = 0.089\nsamples = 3624\nvalue = [3583, 41]"] ;
1 -> 17 ;
18 [label="X[6] <= -0.624\nentropy = 0.049\nsamples = 3458\nvalue = [3439, 19]"] ;
17 -> 18 ;
19 [label="X[9] <= 0.84\nentropy = 0.258\nsamples = 207\nvalue = [198, 9]"] ;
18 -> 19 ;
20 [label="X[1] <= 0.544\nentropy = 0.048\nsamples = 187\nvalue = [186, 1]"] ;
19 -> 20 ;
21 [label="entropy = 0.0\nsamples = 180\nvalue = [180, 0]"] ;
20 -> 21 ;
22 [label="X[8] <= 0.717\nentropy = 0.592\nsamples = 7\nvalue = [6, 1]"] ;
20 -> 22 ;
23 [label="entropy = 0.0\nsamples = 6\nvalue = [6, 0]"] ;
22 -> 23 ;
24 [label="entropy = 0.0\nsamples = 1\nvalue = [0, 1]"] ;
22 -> 24 ;
25 [label="X[4] <= -0.359\nentropy = 0.971\nsamples = 20\nvalue = [12, 8]"] ;
19 -> 25 ;
26 [label="entropy = 0.0\nsamples = 10\nvalue = [10, 0]"] ;
25 -> 26 ;
27 [label="X[5] <= -0.676\nentropy = 0.722\nsamples = 10\nvalue = [2, 8]"] ;
25 -> 27 ;
28 [label="entropy = 0.0\nsamples = 2\nvalue = [2, 0]"] ;
27 -> 28 ;
29 [label="entropy = 0.0\nsamples = 8\nvalue = [0, 8]"] ;
27 -> 29 ;
30 [label="X[4] <= -1.243\nentropy = 0.03\nsamples = 3251\nvalue = [3241, 10]"] ;
18 -> 30 ;
31 [label="entropy = 0.918\nsamples = 3\nvalue = [1, 2]"] ;
30 -> 31 ;
32 [label="X[4] <= -0.359\nentropy = 0.025\nsamples = 3248\nvalue = [3240, 8]"] ;
30 -> 32 ;
33 [label="entropy = 0.0\nsamples = 1754\nvalue = [1754, 0]"] ;
32 -> 33 ;
34 [label="X[10] <= 1.301\nentropy = 0.048\nsamples = 1494\nvalue = [1486, 8]"] ;
32 -> 34 ;
35 [label="X[9] <= 5.327\nentropy = 0.021\nsamples = 1450\nvalue = [1447, 3]"] ;
34 -> 35 ;
36 [label="X[0] <= -0.893\nentropy = 0.015\nsamples = 1449\nvalue = [1447, 2]"] ;
35 -> 36 ;
37 [label="X[5] <= -1.269\nentropy = 0.092\nsamples = 170\nvalue = [168, 2]"] ;
36 -> 37 ;
38 [label="entropy = 0.0\nsamples = 1\nvalue = [0, 1]"] ;
37 -> 38 ;
39 [label="X[1] <= -0.871\nentropy = 0.052\nsamples = 169\nvalue = [168, 1]"] ;
37 -> 39 ;
40 [label="X[2] <= -0.713\nentropy = 0.235\nsamples = 26\nvalue = [25, 1]"] ;
39 -> 40 ;
41 [label="X[6] <= 0.336\nentropy = 0.65\nsamples = 6\nvalue = [5, 1]"] ;
40 -> 41 ;
42 [label="entropy = 0.0\nsamples = 5\nvalue = [5, 0]"] ;
41 -> 42 ;
43 [label="entropy = 0.0\nsamples = 1\nvalue = [0, 1]"] ;
41 -> 43 ;
44 [label="entropy = 0.0\nsamples = 20\nvalue = [20, 0]"] ;
40 -> 44 ;
45 [label="entropy = 0.0\nsamples = 143\nvalue = [143, 0]"] ;
39 -> 45 ;
46 [label="entropy = 0.0\nsamples = 1279\nvalue = [1279, 0]"] ;
36 -> 46 ;
47 [label="entropy = 0.0\nsamples = 1\nvalue = [0, 1]"] ;
35 -> 47 ;
48 [label="X[8] <= -1.758\nentropy = 0.511\nsamples = 44\nvalue = [39, 5]"] ;
34 -> 48 ;
49 [label="entropy = 0.0\nsamples = 2\nvalue = [0, 2]"] ;
48 -> 49 ;
50 [label="X[6] <= -0.419\nentropy = 0.371\nsamples = 42\nvalue = [39, 3]"] ;
48 -> 50 ;
51 [label="entropy = 0.0\nsamples = 2\nvalue = [0, 2]"] ;
50 -> 51 ;
52 [label="X[6] <= 2.246\nentropy = 0.169\nsamples = 40\nvalue = [39, 1]"] ;
50 -> 52 ;
53 [label="entropy = 0.0\nsamples = 39\nvalue = [39, 0]"] ;
52 -> 53 ;
54 [label="entropy = 0.0\nsamples = 1\nvalue = [0, 1]"] ;
52 -> 54 ;
55 [label="X[8] <= 1.954\nentropy = 0.564\nsamples = 166\nvalue = [144, 22]"] ;
17 -> 55 ;
56 [label="X[6] <= -0.802\nentropy = 0.299\nsamples = 151\nvalue = [143, 8]"] ;
55 -> 56 ;
57 [label="X[5] <= -0.93\nentropy = 0.994\nsamples = 11\nvalue = [6, 5]"] ;
56 -> 57 ;
58 [label="entropy = 0.0\nsamples = 5\nvalue = [5, 0]"] ;
57 -> 58 ;
59 [label="X[8] <= -0.18\nentropy = 0.65\nsamples = 6\nvalue = [1, 5]"] ;
57 -> 59 ;
60 [label="entropy = 0.0\nsamples = 1\nvalue = [1, 0]"] ;
59 -> 60 ;
61 [label="entropy = 0.0\nsamples = 5\nvalue = [0, 5]"] ;
59 -> 61 ;
62 [label="X[8] <= 0.469\nentropy = 0.149\nsamples = 140\nvalue = [137, 3]"] ;
56 -> 62 ;
63 [label="entropy = 0.0\nsamples = 108\nvalue = [108, 0]"] ;
62 -> 63 ;
64 [label="X[1] <= 1.237\nentropy = 0.449\nsamples = 32\nvalue = [29, 3]"] ;
62 -> 64 ;
65 [label="X[4] <= -0.446\nentropy = 0.811\nsamples = 12\nvalue = [9, 3]"] ;
64 -> 65 ;
66 [label="entropy = 0.0\nsamples = 7\nvalue = [7, 0]"] ;
65 -> 66 ;
67 [label="X[10] <= -0.04\nentropy = 0.971\nsamples = 5\nvalue = [2, 3]"] ;
65 -> 67 ;
68 [label="entropy = 0.0\nsamples = 2\nvalue = [2, 0]"] ;
67 -> 68 ;
69 [label="entropy = 0.0\nsamples = 3\nvalue = [0, 3]"] ;
67 -> 69 ;
70 [label="entropy = 0.0\nsamples = 20\nvalue = [20, 0]"] ;
64 -> 70 ;
71 [label="X[9] <= -0.52\nentropy = 0.353\nsamples = 15\nvalue = [1, 14]"] ;
55 -> 71 ;
72 [label="entropy = 0.0\nsamples = 1\nvalue = [1, 0]"] ;
71 -> 72 ;
73 [label="entropy = 0.0\nsamples = 14\nvalue = [0, 14]"] ;
71 -> 73 ;
74 [label="X[6] <= -0.464\nentropy = 0.729\nsamples = 1435\nvalue = [292, 1143]"] ;
0 -> 74 [labeldistance=2.5, labelangle=-45, headlabel="False"] ;
75 [label="X[7] <= -0.643\nentropy = 0.098\nsamples = 1024\nvalue = [13, 1011]"] ;
74 -> 75 ;
76 [label="X[6] <= -1.352\nentropy = 0.937\nsamples = 17\nvalue = [11, 6]"] ;
75 -> 76 ;
77 [label="entropy = 0.0\nsamples = 6\nvalue = [0, 6]"] ;
76 -> 77 ;
78 [label="entropy = 0.0\nsamples = 11\nvalue = [11, 0]"] ;
76 -> 78 ;
79 [label="X[2] <= 3.302\nentropy = 0.021\nsamples = 1007\nvalue = [2, 1005]"] ;
75 -> 79 ;
80 [label="X[9] <= -0.52\nentropy = 0.011\nsamples = 1006\nvalue = [1, 1005]"] ;
79 -> 80 ;
81 [label="X[1] <= -0.299\nentropy = 0.235\nsamples = 26\nvalue = [1, 25]"] ;
80 -> 81 ;
82 [label="entropy = 0.0\nsamples = 1\nvalue = [1, 0]"] ;
81 -> 82 ;
83 [label="entropy = 0.0\nsamples = 25\nvalue = [0, 25]"] ;
81 -> 83 ;
84 [label="entropy = 0.0\nsamples = 980\nvalue = [0, 980]"] ;
80 -> 84 ;
85 [label="entropy = 0.0\nsamples = 1\nvalue = [1, 0]"] ;
79 -> 85 ;
86 [label="X[1] <= 0.138\nentropy = 0.906\nsamples = 411\nvalue = [279, 132]"] ;
74 -> 86 ;
87 [label="X[9] <= 0.024\nentropy = 0.159\nsamples = 216\nvalue = [211, 5]"] ;
86 -> 87 ;
88 [label="entropy = 0.0\nsamples = 176\nvalue = [176, 0]"] ;
87 -> 88 ;
89 [label="X[8] <= 0.098\nentropy = 0.544\nsamples = 40\nvalue = [35, 5]"] ;
87 -> 89 ;
90 [label="entropy = 0.0\nsamples = 23\nvalue = [23, 0]"] ;
89 -> 90 ;
91 [label="X[8] <= 0.717\nentropy = 0.874\nsamples = 17\nvalue = [12, 5]"] ;
89 -> 91 ;
92 [label="X[4] <= 0.307\nentropy = 0.954\nsamples = 8\nvalue = [3, 5]"] ;
91 -> 92 ;
93 [label="X[2] <= 0.248\nentropy = 0.811\nsamples = 4\nvalue = [3, 1]"] ;
92 -> 93 ;
94 [label="entropy = 0.0\nsamples = 3\nvalue = [3, 0]"] ;
93 -> 94 ;
95 [label="entropy = 0.0\nsamples = 1\nvalue = [0, 1]"] ;
93 -> 95 ;
96 [label="entropy = 0.0\nsamples = 4\nvalue = [0, 4]"] ;
92 -> 96 ;
97 [label="entropy = 0.0\nsamples = 9\nvalue = [9, 0]"] ;
91 -> 97 ;
98 [label="X[6] <= 0.736\nentropy = 0.933\nsamples = 195\nvalue = [68, 127]"] ;
86 -> 98 ;
99 [label="X[7] <= 0.105\nentropy = 0.704\nsamples = 157\nvalue = [30, 127]"] ;
98 -> 99 ;
100 [label="X[10] <= -0.501\nentropy = 0.684\nsamples = 22\nvalue = [18, 4]"] ;
99 -> 100 ;
101 [label="entropy = 0.0\nsamples = 14\nvalue = [14, 0]"] ;
100 -> 101 ;
102 [label="X[5] <= -0.563\nentropy = 1.0\nsamples = 8\nvalue = [4, 4]"] ;
100 -> 102 ;
103 [label="entropy = 0.0\nsamples = 3\nvalue = [3, 0]"] ;
102 -> 103 ;
104 [label="X[4] <= 2.451\nentropy = 0.722\nsamples = 5\nvalue = [1, 4]"] ;
102 -> 104 ;
105 [label="entropy = 0.0\nsamples = 4\nvalue = [0, 4]"] ;
104 -> 105 ;
106 [label="entropy = 0.0\nsamples = 1\nvalue = [1, 0]"] ;
104 -> 106 ;
107 [label="X[3] <= 0.037\nentropy = 0.433\nsamples = 135\nvalue = [12, 123]"] ;
99 -> 107 ;
108 [label="X[3] <= -0.811\nentropy = 0.074\nsamples = 112\nvalue = [1, 111]"] ;
107 -> 108 ;
109 [label="X[5] <= -0.478\nentropy = 1.0\nsamples = 2\nvalue = [1, 1]"] ;
108 -> 109 ;
110 [label="entropy = 0.0\nsamples = 1\nvalue = [1, 0]"] ;
109 -> 110 ;
111 [label="entropy = 0.0\nsamples = 1\nvalue = [0, 1]"] ;
109 -> 111 ;
112 [label="entropy = 0.0\nsamples = 110\nvalue = [0, 110]"] ;
108 -> 112 ;
113 [label="X[7] <= 0.951\nentropy = 0.999\nsamples = 23\nvalue = [11, 12]"] ;
107 -> 113 ;
114 [label="entropy = 0.0\nsamples = 10\nvalue = [10, 0]"] ;
113 -> 114 ;
115 [label="X[5] <= -0.845\nentropy = 0.391\nsamples = 13\nvalue = [1, 12]"] ;
113 -> 115 ;
116 [label="entropy = 0.0\nsamples = 1\nvalue = [1, 0]"] ;
115 -> 116 ;
117 [label="entropy = 0.0\nsamples = 12\nvalue = [0, 12]"] ;
115 -> 117 ;
118 [label="entropy = 0.0\nsamples = 38\nvalue = [38, 0]"] ;
98 -> 118 ;
}